UNK	0.020468257 0.34468344 0.24124268 -0.47257534 -0.31575668 -0.496635 0.13998078 0.09664007 -0.26107448 -0.28961843 -0.08901265 -0.25299102
the	-0.2799228 -0.083863944 -0.3822238 -0.57600504 -0.18729039 -0.28865314 -0.060932405 -0.38631177 -0.37489673 0.13300392 -0.074018545 0.040853284
of	0.28142115 -0.13654076 0.39344165 -0.673431 0.30072582 -0.009329314 0.03815711 -0.33800247 0.21624643 0.028615566 0.18022066 -0.08699276
and	0.27197084 -0.026387056 0.10945979 -0.4197585 0.21124868 -0.158071 0.2515148 -0.14751486 -0.5408087 0.24605317 0.36823288 -0.30645147
one	0.07357965 -0.3469581 -0.060682252 -0.5730639 -0.09824195 -0.15768978 0.06301052 0.3997588 -0.29083145 0.15567589 0.19074531 0.44567358
in	0.49345273 -0.337012 0.4864941 -0.30828986 -0.04991221 0.039109588 0.2000112 -0.33236548 -0.093225025 0.19858585 0.2493386 -0.21545114
a	-0.24892433 -0.11486265 -0.075159796 -0.57788736 -0.4558221 -0.092625864 -0.15666865 -0.055901922 -0.30025437 0.44190753 -0.037868418 -0.23312706
to	0.11949769 -0.1936098 0.47741562 -0.15901527 -0.16993447 0.06222785 0.056792703 -0.23526669 -0.2420162 0.2151727 0.5779268 -0.40598962
zero	-0.012459948 -0.16631962 0.41137895 -0.28747362 0.06982789 -0.4627993 -0.20023824 -0.13751754 -0.28089613 0.019650511 0.33715707 0.4992792
nine	0.2927019 -0.5009292 0.3159928 -0.40776846 -0.20101903 -0.18988727 -0.043765727 -0.08081571 -0.44028318 -0.016471768 -0.03380016 0.34218922
two	-0.14399295 -0.307941 0.22033352 -0.44418943 0.06952279 -0.3218643 0.054922715 0.28420395 -0.39880297 -0.04236047 0.3405865 0.41174203
is	0.27349287 -0.5140819 0.035913743 -0.27767223 -0.054571863 -0.21195412 -0.03578562 -0.1988962 -0.0955969 -0.5661207 0.022370571 -0.40454313
as	0.112700984 -0.07151831 0.011383122 -0.6368203 0.036072843 0.26728153 0.10129912 0.36399186 -0.3427073 -0.40254578 0.18243647 -0.21965234
eight	0.24505726 -0.5234699 0.2904077 -0.30447856 -0.117185704 -0.28592387 -0.09842098 0.013688283 -0.4528607 0.06544663 0.064217016 0.4123512
for	0.12332807 -0.24104945 0.48891735 -0.46163002 0.033097073 0.17792857 0.10783502 -0.28694886 -0.13966647 -0.19532003 0.43747392 -0.3142942
s	-0.27254552 -0.4137386 -0.16975571 -0.37817875 0.3291786 -0.26030606 0.07524079 -0.28492895 -0.16134004 -0.1416198 0.49683833 -0.16372108
five	0.061012514 -0.428844 0.3026337 -0.3350788 0.022009678 -0.31880817 -0.10485942 0.18159062 -0.42614317 -0.16240431 0.15133703 0.48118132
three	0.0057473737 -0.34819704 0.38600475 -0.31789413 -0.063685134 -0.33366963 -0.0006603317 0.22254537 -0.5091019 0.038370747 0.14608635 0.426325
was	0.39105052 -0.53233695 -0.17726207 -0.2867244 -0.04887027 -0.22357506 0.009168184 -0.090415664 -0.1549746 -0.437756 0.22105485 -0.3534376
by	0.37579358 -0.2786227 0.29793093 -0.43285638 0.16850214 0.04530441 0.051823992 -0.009570257 -0.15066102 0.08529599 0.5168176 -0.4179997
that	0.49506554 0.36230668 0.039586563 -0.31325385 0.076749474 -0.02207411 0.31456774 0.03339347 -0.6046825 -0.077408865 0.12006796 -0.17735252
four	0.090797946 -0.41204557 0.2851939 -0.38777202 0.08008009 -0.38019797 0.020299507 0.16925746 -0.4515529 0.033054434 0.1710545 0.41951847
six	0.16811562 -0.38262117 0.31126264 -0.27819076 -0.047696576 -0.35121682 -0.11910582 0.114316724 -0.51767296 0.008364174 0.16712254 0.449662
seven	0.27190417 -0.4133249 0.29250246 -0.35221 -0.08814453 -0.27052823 -0.13005443 0.16000903 -0.4549477 0.0544357 0.14495464 0.43726033
with	0.049451414 -0.23160498 0.48824123 -0.37417048 0.04276442 0.023288168 0.17047264 -0.1405998 -0.14199442 -0.119169936 0.5355785 -0.4394565
on	0.56256527 -0.23390205 0.34140253 -0.39829937 0.07820893 -0.17275494 -0.16096713 -0.04487572 0.121481165 0.070860595 0.44582596 -0.26680925
are	0.20793697 -0.20934737 0.16384739 -0.31070855 0.28684276 -0.22335608 -0.24182227 -0.17936252 -0.43045682 -0.5118402 -0.05086579 -0.34186822
it	0.5408396 0.30854344 -0.04841349 -0.3362471 -0.3677425 -0.2693356 -0.28210816 -0.15295827 -0.25548303 0.34646013 -0.006102318 -0.028042084
from	0.39323667 -0.28278282 0.5515397 -0.31844082 0.17065355 -0.05885693 0.12299574 -0.2766206 -0.119634375 0.0962889 0.3879631 -0.24792199
or	0.069654785 -0.20764093 0.28971258 -0.47577414 0.2800979 -0.19644654 0.086815186 -0.08658877 -0.5010443 0.06340941 0.08322991 -0.49765968
his	-0.17999482 0.090901695 -0.4558231 -0.5267914 -0.16717696 -0.25263846 -0.23333892 -0.3044917 -0.33165625 -0.051087342 0.320017 0.14177956
an	-0.25142744 -0.049135074 -0.18977636 -0.537599 -0.50346047 -0.09403583 -0.06346207 -0.14706309 -0.31583226 0.34098315 0.02299159 -0.32376528
be	0.5667711 0.035942283 -0.062188346 -0.50139725 0.129304 -0.15776636 -0.40751627 0.2469908 -0.15593092 -0.22789054 -0.1323356 -0.24447271
this	0.23561159 0.24685591 -0.34018087 -0.68837273 -0.22933227 -0.06582385 -0.16329291 -0.07353427 -0.28381288 0.3485376 0.04299295 0.033088338
which	0.28066882 0.30735704 -0.16771382 -0.29825294 0.08103824 -0.14332101 0.2258839 0.19304466 -0.7119375 0.19152482 0.1632438 -0.15521224
at	0.5636664 -0.18222672 0.48806477 -0.37228474 -0.019054072 -0.067607716 0.17374763 -0.18396719 -0.10407544 0.1164832 0.37666872 -0.19241928
he	0.5883336 0.06989998 -0.12211027 -0.07392778 -0.19325036 -0.3590451 -0.3077284 -0.31133464 -0.3579594 0.32492566 0.18953784 -0.03286042
also	0.18382631 0.31270516 0.02134008 -0.3004713 -0.122067586 0.04574463 -0.088888325 0.40357137 -0.5583871 -0.0007744849 0.44050702 -0.2899615
not	0.26515102 0.40777567 0.30031294 -0.26198676 -0.3364289 -0.0932337 -0.47648674 0.14086314 -0.3586986 0.03990402 0.27911627 -0.16633497
have	0.27649474 0.029364726 0.09500954 -0.3019907 0.13277346 -0.38309693 -0.4830997 0.30948168 -0.21015406 -0.3233264 0.14987719 -0.39716402
were	0.27123147 -0.14991145 -0.04139797 -0.3507883 0.25234795 -0.2307585 -0.18827926 -0.16541664 -0.4825391 -0.4660973 0.136717 -0.36148444
has	0.08076293 -0.55707407 -0.1210747 -0.17548886 -0.1668534 -0.29688603 -0.10721486 0.020747632 -0.13927971 -0.37624913 0.34975773 -0.47591075
but	0.5612345 -0.0057071806 0.1687049 -0.17885563 -0.0876869 -0.27710208 0.18919814 -0.005937616 -0.6429482 -0.120773815 -0.03400249 -0.2740471
other	-0.29480574 0.29003197 0.4538612 -0.50561523 0.2028213 -0.40505323 0.06473588 -0.14357543 -0.0915073 -0.34229207 -0.09848538 0.04569499
their	-0.35651562 0.14151013 -0.38571292 -0.53173447 -0.15720613 -0.2777799 -0.2664047 -0.27493602 -0.3540783 -0.0710876 0.20402 -0.029493304
its	-0.35482794 0.18966371 -0.35625938 -0.56265426 -0.18652458 -0.30385962 -0.26185167 -0.23001833 -0.2880071 -0.08185828 0.23586823 -0.027290728
first	0.5420793 0.13973877 0.13030627 -0.42058906 -0.23727056 0.044818357 0.4204811 0.06972078 -0.01505899 0.0039314316 0.47632506 0.16015312
they	0.3182792 0.31525776 0.13530877 -0.06826295 -0.10606692 -0.35198307 -0.43085375 -0.37956625 -0.5398728 0.1335674 0.04648345 -0.005574777
some	-0.30883524 0.2985513 -0.16881743 -0.46512154 -0.08797589 -0.18675947 0.0019249963 -0.28272888 -0.65758485 -0.09068577 -0.07808055 0.036799848
had	0.1807083 -0.30149338 -0.097865015 -0.17682968 -0.07063789 -0.36039993 -0.1855057 0.19545878 -0.24180847 -0.43472692 0.41809526 -0.45369968
all	-0.030414343 0.41178614 0.16081037 -0.37421575 -0.15580049 -0.2083927 0.31175524 -0.04982983 -0.5531393 -0.3996849 -0.068227865 0.16083464
more	-0.30789682 0.33376792 0.45075443 -0.50244594 -0.13334493 -0.11396952 -0.24513967 0.26794067 -0.28088322 -0.007907975 0.107774325 -0.29144165
most	0.026113294 0.44168597 0.22917174 -0.4765408 -0.25463268 0.1755025 0.49299634 -0.20091343 -0.28879252 -0.22165267 0.1141408 0.0033050396
can	0.02735133 -0.29682383 0.21400586 0.08446227 0.007166303 -0.4188647 -0.16154765 -0.42931962 -0.46212208 -0.17322522 0.25491646 -0.4046688
been	0.19680816 -0.26307127 -0.028624294 -0.17152008 -0.3595549 0.26069504 0.13145415 0.065862 -0.6776583 0.10909179 0.12340169 -0.39574248
such	-0.11616919 -0.13389951 0.33241418 -0.5066324 -0.44459465 -0.26865238 -0.24854171 -0.309768 0.1410167 0.003834617 -0.2146709 -0.32840294
many	-0.31551835 0.3538667 0.06425603 -0.41954562 -0.062143136 -0.14383252 0.092643715 -0.30797195 -0.6342733 -0.17817436 -0.10381934 0.14924109
who	0.30677387 0.26543346 -0.034298383 -0.106983565 0.1876363 -0.09262985 -0.026575586 -0.043444533 -0.671447 0.3508663 0.429489 -0.13424775
new	0.05267168 -0.3528387 -0.24725114 -0.61556035 -0.2729494 -0.07794324 0.42705834 0.12609085 0.18317282 -0.019679654 0.319631 -0.13313593
used	0.11424444 0.09412217 0.12519422 -0.18760073 -0.5181897 -0.45955524 -0.19032058 0.16744497 -0.4187735 -0.002909848 -0.3504253 -0.2916721
there	0.38415933 0.413543 0.19545466 -0.08522802 -0.118798845 -0.30495265 -0.03966442 -0.29165706 -0.5732763 0.32905066 -0.011787897 0.071638525
after	0.46399966 -0.22772852 0.22037785 -0.33932662 0.022506595 0.03859673 0.16454586 -0.09009905 -0.18761246 -0.4061373 0.5754113 0.0264865
when	0.40452403 -0.24159041 0.1549566 -0.19675757 0.14661129 -0.101873055 0.25790086 0.09370107 -0.48638502 -0.35599625 0.4500477 -0.20556442
into	0.19438414 -0.3127896 0.4526724 -0.3361557 -0.01655819 0.06019746 0.1563743 -0.11962974 -0.099849835 0.016970636 0.5720838 -0.4077556
american	0.055518243 -0.15187402 -0.102321476 -0.6321239 0.29056588 -0.21185377 0.62165886 -0.050853726 0.04408013 0.07183625 0.053741295 -0.1882916
time	0.40742 0.10141201 0.17465249 -0.2817943 -0.50227815 -0.1246621 0.22576553 -0.12392605 -0.04472031 -0.546066 -0.14691669 0.24060129
these	-0.2757607 0.41124296 -0.052221373 -0.38003 0.023361305 -0.2030715 -0.045671076 -0.31577277 -0.66866803 -0.013229703 0.023196805 0.12756728
only	0.54854345 0.04645294 0.38825724 -0.22929198 -0.41404837 -0.29983994 0.024866434 0.20389207 -0.38844198 0.043172136 -0.17490584 -0.082159445
see	0.3749139 -0.36783382 -0.16830963 -0.31140825 0.30058149 -0.37729472 -0.05857593 0.11244143 -0.34624615 0.0021913373 -0.1280489 -0.46235508
may	-0.11818676 -0.39743397 0.18097036 0.15857163 -0.10036531 -0.4075684 0.023925923 -0.35536367 -0.6115098 -0.1952656 0.06611048 -0.22516271
than	0.075946555 -0.19899124 0.5405351 -0.27510986 0.11671655 0.06862179 0.24282058 -0.003983715 -0.5348394 -0.053687982 -0.4115221 -0.22622025
world	0.41797122 0.15864749 -0.036855955 -0.5181921 -0.34489453 -0.1749132 0.2440374 -0.03844096 0.2689851 0.029875504 0.4168472 0.26956156
i	0.19753031 0.046680547 0.10159376 -0.17472115 -0.12418011 -0.55435777 -0.562664 -0.039644886 -0.18827368 0.31559303 0.36299908 -0.10121202
b	-0.0068308413 -0.4375716 0.31825826 -0.12887889 0.078032434 -0.5736437 0.09617815 0.17973809 -0.08547196 0.41343927 -0.19986272 -0.3093408
would	0.011020832 -0.20163922 0.12779604 0.09933469 -0.09580742 -0.30430648 -0.058704883 -0.512863 -0.53877884 -0.30066127 0.32739568 -0.27730313
d	0.036340583 -0.4690635 0.33113846 -0.12512185 0.1699033 -0.56285715 0.10425201 0.024935532 -0.26476163 0.4030212 -0.025685415 -0.25099924
no	0.065589085 0.09275482 0.14300622 -0.3530968 -0.28770775 -0.061684508 -0.07697014 -0.052199546 -0.6659226 0.51714975 0.061880957 -0.17891498
however	0.5951218 0.124875195 0.260145 -0.21037869 -0.2299536 -0.23528358 0.29632044 -0.17075796 -0.47316933 -0.18472221 0.12125696 -0.1427786
between	0.3526998 -0.17874457 0.5017137 -0.39213058 0.25871393 -0.052573487 0.17592679 -0.25460982 -0.17202246 0.28949818 0.33201736 -0.22149615
about	0.3727919 -0.19858544 0.55483395 -0.42131028 -0.26546136 -0.20441027 0.050942916 0.2786283 -0.21864124 0.2547733 0.112744935 0.13542524
over	0.48067915 -0.08588144 0.47297457 -0.5652629 -0.15648572 -0.16868791 0.21504685 0.20465039 -0.13059635 0.0494228 0.23885965 0.026880708
years	-0.08193072 -0.05159945 0.26175913 -0.17586316 -0.4177463 -0.15320434 0.026084764 0.1126563 -0.38806343 -0.35860077 0.36596105 0.51643825
states	0.265793 0.03025146 0.08006844 -0.12970561 -0.21875417 -0.10263785 0.53569263 -0.43087754 -0.5065073 -0.07804013 -0.27316588 0.19218501
people	-0.050857995 0.40654123 0.43311122 -0.21036868 -0.09500056 -0.39080694 0.055839747 -0.055568293 -0.35658157 -0.39056948 0.10596673 0.37604833
war	0.4224157 0.19938749 -0.36227143 -0.26116076 0.10809066 -0.3731217 0.44086036 -0.25471324 -0.0737432 -0.19292662 0.16348755 0.32068232
during	0.6187716 -0.1600271 0.18079059 -0.35458165 0.06208229 -0.0022060317 0.3267012 -0.34675017 -0.0017807594 -0.20446424 0.40055695 -0.0040732767
united	0.5142932 0.005896977 -0.039101154 -0.19776292 0.3856192 -0.35861167 0.5544079 -0.16297096 -0.23951174 0.121896856 -0.0924688 -0.053116556
known	0.0053754137 -0.052532993 -0.021637369 -0.4491368 -0.53439075 -0.057281688 -0.52557456 -0.03248918 -0.33842716 0.05142449 -0.25413418 -0.21706913
if	0.26864168 -0.21930034 0.49384674 -0.08184403 0.13019124 -0.39554945 -0.09102146 -0.0469441 -0.34527788 -0.42817017 0.18251625 -0.3307563
called	0.39519197 0.021506377 0.282662 -0.17775816 -0.06971477 -0.23958555 0.08111015 0.18012469 -0.45492902 0.22641213 -0.11818793 -0.59865564
use	0.1621019 0.37758785 0.19812308 -0.4758812 -0.2713151 -0.26563004 0.2701672 0.19487695 -0.10440954 -0.4989143 -0.17281982 0.1435705
th	-0.06506409 -0.48489425 -0.21860066 -0.14879432 -0.3824855 -0.09585517 0.06380657 -0.10682075 -0.20335001 0.06428993 0.6742487 0.14020395
system	0.22303754 0.34946078 0.14248459 -0.5789904 -0.48249403 -0.31986746 0.31517538 0.0809208 -0.028490093 -0.08179897 0.032782506 -0.15173365
often	0.27286977 0.39446637 0.16363117 -0.38137633 -0.22141187 -0.0259606 -0.17251271 0.045909848 -0.5805721 0.042607125 -0.06428151 -0.41609916
state	0.09170009 0.1789763 0.1796903 -0.55454135 -0.3857936 -0.25286335 0.5470207 -0.20037673 0.06194985 -0.17108257 0.0038512738 0.18566966
so	0.35139298 0.31935906 0.25983948 -0.16139317 -0.41108412 -0.3451299 -0.19484152 -0.05977285 -0.421824 -0.34575662 0.15094498 -0.17623878
history	-0.09615183 0.101077534 0.05476383 -0.5327831 -0.35173696 -0.09547126 0.5897468 -0.008418013 -0.0063337423 -0.22157875 0.3436651 0.21385168
will	-0.08508554 -0.18709755 0.182184 0.07908305 -0.021882465 -0.44757536 -0.06662062 -0.34461173 -0.48836693 -0.24582084 0.32209784 -0.43776083
up	0.17084683 0.11690252 -0.25556284 -0.63638556 -0.4092834 -0.34236184 -0.14922361 0.14377329 0.14007302 -0.23447467 0.17345019 -0.2334518
while	0.37165725 -0.14634483 0.18838368 -0.39309454 0.2844671 -0.12605733 0.3303985 -0.11836665 -0.49326208 -0.35736197 0.17355038 -0.17123619
where	0.34522492 -0.24807315 0.16388726 -0.14869054 0.31144744 -0.21942091 0.3540499 0.08791753 -0.4914776 -0.31747636 0.31344482 -0.22692837
city	0.3192099 -0.013766517 -0.06475425 -0.35820702 -0.55932015 -0.14986642 0.5208421 0.10366788 0.088312276 0.13082749 0.3505026 0.017911367
being	0.25412518 0.19610171 0.10357941 -0.54043144 -0.6806828 -0.114464134 -0.07354983 0.065090686 -0.18002288 -0.079539284 -0.02599236 -0.26207247
english	0.05828998 -0.02436095 0.0919082 -0.44148472 -0.09054277 -0.4738028 0.6617491 -0.0898805 -0.054326206 0.0307275 -0.30981004 -0.118733995
then	0.41180146 0.07490871 0.11361098 0.02540699 -0.0031233747 -0.6297466 0.01833753 0.21593492 -0.49952528 -0.007533867 0.30079418 -0.16625683
any	-0.38121685 0.12959859 -0.07554333 -0.584269 -0.17582904 -0.065689825 -0.21038523 -0.13562422 -0.5786685 0.058937237 -0.23181258 -0.029086854
both	0.014703384 0.41402665 0.0944273 -0.39391115 -0.14127 -0.44604254 0.37338904 -0.0071024927 -0.5139352 -0.12624367 -0.14865297 -0.061134387
under	0.56468946 -0.12647323 0.46669307 -0.30960307 0.026337393 -0.048419632 0.28116485 -0.060998183 -0.20613167 0.22505102 0.3627969 -0.20224097
out	-0.0071871867 0.22841826 -0.20263378 -0.558282 -0.46022883 -0.15908897 0.24238425 -0.09032432 -0.18804087 -0.46787816 0.17648864 -0.0747548
made	0.1666929 0.09900173 0.108121954 -0.14994457 -0.63131255 -0.27493978 0.0931742 0.3229648 -0.43002594 -0.22707945 0.21094665 -0.24518871
well	0.112775825 0.073472336 0.3238741 -0.42567456 -0.7118191 -0.034109216 -0.38013968 -0.058080323 -0.04188201 -0.1518801 -0.031493377 -0.11936195
her	-0.21587718 0.23400754 -0.32590064 -0.49826214 -0.18895912 -0.42764616 -0.26472133 -0.12463701 -0.24782406 -0.18824083 0.37510937 0.0490337
e	0.20753947 -0.14737807 0.12819727 -0.11069408 0.48425353 -0.7492633 -0.09313827 -0.029662758 -0.1202554 0.21511471 0.0606373 -0.1914553
number	-0.27740672 -0.18657555 0.31064188 -0.51918423 -0.5590005 0.14346947 0.35117686 0.15549758 -0.018736452 -0.19388956 0.0026697903 0.06052501
government	0.24024032 0.36138317 0.02004375 -0.33635768 -0.3002913 -0.39107397 0.5800005 -0.04271619 -0.08723837 0.20357253 0.22899577 0.12376718
them	-0.040475607 0.40270722 -0.07047767 -0.5059223 -0.27529946 -0.35734552 -0.11835247 0.07711644 -0.42422876 -0.37961537 -0.16270237 -0.03569815
m	-0.052781954 -0.39148647 0.26576468 -0.08936486 0.1258666 -0.75764155 -0.0059404713 0.25825685 -0.21378727 0.15189154 0.18695477 -0.07079763
later	0.50489604 0.3376569 -0.03501306 -0.25109825 -0.10682877 -0.19356567 0.12183329 0.043042358 -0.4584349 -0.18988983 0.42611593 0.2709615
since	0.54536647 -0.29504445 0.3973495 0.01511284 0.010779091 -0.14801407 0.2541867 -0.15057705 -0.47882256 -0.009038868 0.22491261 -0.26107898
him	0.19708225 0.18833427 -0.21857168 -0.52411324 -0.3862697 -0.4679863 -0.20642325 0.10432365 -0.16739874 -0.34723705 0.06718475 -0.1685267
part	-0.101722114 -0.08388695 0.089411825 -0.33646858 -0.84353256 0.02877424 0.2602472 -0.089799866 -0.1842248 -0.12149378 -0.14897189 0.048478615
name	0.32749033 0.36830485 0.1260808 -0.3950516 -0.52976745 -0.042928357 0.3893089 -0.014995907 -0.04708378 -0.2514961 0.08899404 0.27833396
c	-0.050520156 -0.39583528 0.2446231 -0.24566074 0.071017765 -0.6384969 0.025038164 0.3297422 -0.15952572 0.41527689 -0.0069498545 0.023285879
century	0.59627587 0.00644079 0.0765247 -0.2332389 0.21079105 -0.51180905 0.12781681 -0.29242623 -0.07756226 -0.12527147 -0.1789534 0.3495605
through	0.3308363 -0.13353808 0.43046278 -0.51820713 0.07272155 -0.11019781 0.20811065 -0.08190619 -0.041392967 -0.12895119 0.49309894 -0.2998982
because	-0.0020527295 0.19182003 -0.0077324146 -0.23900102 -0.1305859 0.033142105 0.4766876 -0.08066775 -0.5110732 -0.5885159 0.2131798 -0.033730675
x	-0.17930146 -0.15651366 0.35074997 -0.25219 0.20723636 -0.698291 -0.10871249 0.23396198 -0.22509176 0.32705402 -0.03943266 0.020737642
university	-0.124989115 -0.1353023 -0.08390318 -0.29673883 -0.1859671 0.04081932 0.79975843 0.03715705 -0.2857861 -0.050674163 0.33088169 -0.0029956806
early	0.2880424 -0.12031625 0.43244168 -0.42660978 -0.15419696 -0.3611793 0.2537563 -0.23878577 0.19518036 -0.17428756 -0.20594096 0.38344842
life	0.16635658 0.4107863 0.07409713 -0.31920612 -0.41264382 -0.2058283 0.25326476 -0.017180296 -0.16149758 -0.36334616 0.3688319 0.35352495
british	0.120334856 -0.11280661 -0.122295335 -0.4698336 0.016372645 -0.23925032 0.71597797 0.04234691 -0.09193124 -0.034912206 0.31672135 -0.23491544
year	0.25788778 -0.24685165 0.22828735 -0.18698138 -0.5945774 -0.12740153 0.11842501 -0.12275 -0.00097351754 -0.4899867 0.015044416 0.38251945
like	0.21151014 0.07012254 0.36559027 -0.50735795 0.39652702 -0.25594735 -0.041893538 0.027896991 -0.26373276 -0.2424146 0.16680536 -0.4217323
same	0.54524976 0.13189259 0.09237127 -0.63520163 -0.21995358 0.23988596 0.21298878 -0.20837997 0.20257084 0.113807425 0.10073072 0.12020142
including	0.13678806 -0.12073159 0.39867324 -0.55297047 0.5073418 -0.089333266 0.20768188 -0.13808651 -0.19166285 -0.09313343 0.29932693 -0.19853306
became	0.21398295 -0.4000063 0.07178171 -0.27952296 -0.06779522 -0.04128497 0.21958412 0.03270097 -0.24883987 -0.6002651 0.37170663 -0.30810395
example	0.017206902 0.2506343 0.4192338 -0.54253083 -0.13591653 -0.0033026158 0.08797455 0.16755848 -0.22892809 -0.2108866 -0.55387676 0.09396577
day	0.37628826 -0.006320039 0.2501972 -0.21535584 -0.57012177 -0.22950345 0.2297892 -0.21878766 0.006937751 -0.3396328 -0.046263043 0.39175203
each	-0.30056292 0.1783753 -0.15877736 -0.57099646 0.027448844 -0.066438645 -0.012966445 -0.30532756 -0.6057215 0.05868825 -0.18654868 0.15130515
even	0.15293323 0.27785856 0.36947766 -0.31309322 -0.31892267 -0.43415964 -0.29198107 -0.01927918 -0.4525816 -0.15506712 -0.2321074 -0.07927375
work	0.3509454 0.41988072 0.062990054 -0.26449904 -0.51433235 -0.43222606 0.15519977 0.076847225 -0.063682936 -0.3005328 0.13070098 0.18385439
language	0.04777736 0.12263655 0.23533285 -0.49932423 -0.32203472 -0.18993507 0.6151164 -0.07998079 -0.35623795 0.07131527 -0.07446008 -0.12605196
although	0.2962393 -0.26062983 0.15662675 -0.24639821 0.22457685 -0.1315606 0.3193863 -0.23782364 -0.3940723 -0.55424035 0.18899336 -0.18591926
several	-0.2845116 0.27061644 -0.0151349185 -0.4521936 -0.060183134 -0.10720715 0.05596688 -0.1682179 -0.7551137 -0.01997281 0.024841597 0.15282074
form	0.07023783 0.12612472 0.20541279 -0.6018832 -0.42583326 -0.14813112 0.2637187 0.19969755 0.0070356047 -0.47253448 -0.17151107 0.09614268
john	-0.13014628 -0.20605826 -0.1355951 -0.31049848 -0.11263675 -0.703141 0.23155695 0.06592745 -0.16027522 0.3109001 0.36190376 -0.08617378
u	0.05369887 0.10859269 0.28889185 -0.21472345 -0.021092618 -0.69724166 0.16621742 0.060415015 0.19899628 0.21715054 0.44441172 0.23159194
national	-0.17666829 -0.09976708 0.10418993 -0.57045245 0.12734064 -0.29050893 0.56116086 -0.1347334 0.10756794 0.010762891 0.3856557 -0.16876197
very	-0.09245801 0.02804213 0.41025656 -0.45924136 -0.47494644 0.23789632 0.015841348 0.2539255 -0.3235648 0.15261008 0.015891554 -0.3692123
much	-0.11600437 0.12844612 0.23457639 -0.44683892 -0.61504686 -0.027868245 -0.025856093 0.0028458463 -0.33527425 -0.16655195 -0.34842786 -0.27215323
g	-0.094239905 -0.2302159 0.24718368 -0.37297451 -0.040790945 -0.6448095 -0.2213083 0.22536148 0.19182964 0.40361127 0.11359153 -0.08998731
french	-0.011660617 -0.12571175 -0.013096431 -0.4588577 -0.00049716333 -0.37236828 0.7458801 0.069014385 -0.08029716 -0.0138599565 0.18527523 -0.18059267
before	0.49881062 -0.12158782 0.21331938 -0.3274251 0.12983984 0.038594685 0.25025782 0.007996211 -0.4407316 -0.2740499 0.4796244 -0.05713257
general	-0.0977403 0.013549933 -0.03519644 -0.6546214 -0.030547837 -0.2697742 0.50410706 0.21539223 -0.25599056 0.1064591 0.06119059 -0.3250496
what	0.3025639 0.53946525 -0.027469553 -0.1887255 -0.13541849 -0.22446795 0.062888786 0.2930371 -0.60497904 -0.092807 0.21693327 -0.028947508
t	-0.011037844 -0.030805837 0.2788883 -0.16734946 0.14935866 -0.5403066 -0.17682798 0.1466507 -0.4014282 0.33690333 0.3449188 -0.36402413
against	0.26464427 -0.03495406 0.38236922 -0.43371522 0.1458524 -0.0019660864 0.2362005 -0.17748643 -0.14172196 0.1273813 0.60676855 -0.2852688
n	-0.09306071 -0.22836801 0.33819422 -0.21432625 0.14016637 -0.7255481 -0.10497298 0.16728374 -0.116411164 0.40570217 -0.013241361 -0.12444142
high	-0.06994331 -0.1103592 0.2588216 -0.6269717 -0.34843263 -0.29424715 0.26405713 -0.15452117 0.20259318 0.009569914 -0.21361256 -0.36673015
links	-0.36755288 -0.14161584 0.087656595 -0.40159935 0.37830627 -0.07202594 0.38306382 0.3248479 -0.43746814 0.08033898 0.050160762 -0.27380273
could	0.03781879 -0.20378233 0.14231601 0.11971499 -0.027278043 -0.40816063 -0.11489419 -0.4111199 -0.5332802 -0.2795065 0.280693 -0.3627634
based	-0.05983734 0.08620202 -0.25098956 -0.07941861 0.026908606 -0.6155438 -0.017964315 -0.44556522 -0.40811044 0.41175088 -0.010476494 -0.070807606
those	-0.26859438 0.23600228 -0.009888023 -0.24993645 -0.13932183 -0.39090854 -0.29559958 -0.2259773 -0.44034803 -0.5187847 0.010713363 0.18913059
now	0.35491943 0.35638532 0.19065788 -0.31270814 -0.26220438 -0.067061126 -0.04351555 0.2607215 -0.5924377 0.03301475 0.06556811 -0.33674282
second	0.381859 -0.08918643 0.016625633 -0.5795878 -0.22047861 -0.03900966 0.48190734 -0.096033394 0.21373683 -0.20972711 0.34901372 0.08343742
de	-0.11364098 -0.18981516 -0.008959704 -0.3737085 0.27018365 -0.43619713 0.07934485 -0.022406206 -0.18297456 0.30139744 0.42198512 -0.48873454
music	0.15177067 0.36846483 -0.03498878 -0.4526381 -0.2616751 -0.32052985 0.54305154 -0.04385629 -0.2635013 -0.14854276 0.24579567 0.12304042
another	-0.14584869 -0.09707366 -0.10964878 -0.7359461 -0.41261375 -0.18105967 -0.13261849 -0.07413739 -0.32212144 0.23714611 -0.13427368 -0.1073256
large	-0.12935126 -0.31913507 0.22582218 -0.73533607 -0.11010117 -0.08203128 0.0930827 0.17824261 0.08031777 -0.028277356 -0.32119158 -0.34641796
she	0.58116466 0.14186585 -0.07987789 -0.11486325 -0.23449901 -0.36291084 -0.3558648 -0.23104978 -0.3167546 0.22181906 0.3258421 -0.010941835
f	-0.018833298 -0.29855886 0.43500566 -0.19055241 0.089346275 -0.7055347 -0.068068065 0.09707446 -0.0795671 0.39347693 -0.060307693 -0.01889521
external	-0.30284226 -0.14912546 0.06833587 -0.58085114 -0.06666894 0.05862397 0.0035185067 0.15546577 0.01916888 0.30501595 0.6441586 -0.059867293
german	-0.059213426 -0.11658194 -0.069683135 -0.54651386 -0.025150398 -0.20297101 0.7571086 0.0057166247 -0.093774326 0.06917808 0.08843995 -0.20710465
different	-0.34293428 0.06290819 0.32695648 -0.5968655 0.1074932 -0.22907177 0.11951611 0.22604738 -0.42480847 -0.13573208 -0.23441008 -0.1790138
modern	0.087649435 -0.004897573 0.005658838 -0.69251585 0.11802328 -0.1493349 0.5911555 -0.116138406 -0.13400231 -0.20283589 -0.22939129 0.042198688
great	0.0504416 -0.017353503 0.14487045 -0.6368646 -0.1315871 -0.16146646 0.4978638 0.2026307 0.05294614 -0.14809048 0.3868725 -0.25268936
do	0.3476454 0.10018191 0.18483679 -0.16166393 0.05088916 -0.48361948 -0.33361524 -0.11205664 -0.36428604 -0.40463293 -0.30623624 -0.24137154
common	0.074639976 0.076120436 0.2063259 -0.55884546 -0.0960247 -0.094238505 0.29355347 -0.0090553 -0.24126169 -0.06636239 -0.59915227 -0.32833534
set	-0.04659838 0.095067404 0.19001906 -0.39218244 -0.72818774 -0.18531908 0.13774768 0.37912807 -0.03777259 -0.20944773 0.1609111 -0.019389264
list	-0.2616788 0.018158184 -0.1812152 -0.3974927 -0.41387627 -0.022326758 0.41786805 0.21964695 -0.3275744 -0.35493422 0.29004788 -0.16820626
south	0.080278195 -0.17068022 -0.12551561 -0.39111033 -0.21553463 -0.33951554 0.72887075 -0.19370727 0.15441333 0.14205965 0.14534272 -0.0072324737
series	0.018583233 -0.09568339 0.11121317 -0.45193166 -0.62139726 0.034219384 0.43940637 0.24111508 -0.07134843 -0.2760171 0.23037656 0.031933174
major	-0.2765191 -0.47615567 0.366978 -0.5761524 -0.09897041 -0.124605276 0.35645136 0.014385428 0.05876386 -0.15215017 0.09245672 -0.20603698
game	0.34754986 0.06558938 0.22121383 -0.6537729 -0.36025512 -0.22881797 0.43100783 -0.0040439023 0.05220318 0.008488496 0.12350157 -0.112147585
power	0.0853459 0.28890207 0.07600831 -0.59473073 -0.40800756 -0.36671916 0.4028613 0.13805774 -0.06576815 -0.24371588 -0.014324826 0.059425943
long	0.23071145 -0.12289491 0.1403648 -0.38516754 -0.80119187 -0.15353297 -0.111844376 0.07282679 0.09513894 -0.028670056 0.105248116 -0.24365646
country	0.4450385 0.21220382 0.30693823 -0.25063273 -0.45438617 -0.458484 0.39418548 0.0048261182 0.038414843 -0.09494108 0.07638779 0.10713572
king	0.029321091 0.054974005 0.056018174 -0.2618956 -0.45969442 -0.4392549 0.40936998 0.075371966 0.15304768 -0.007879188 0.5627095 0.08206564
law	0.19361463 0.28783584 0.049618628 -0.3984623 -0.4091629 -0.46389124 0.54397553 -0.1517912 -0.008115708 -0.06987591 0.07415179 0.08014601
group	-0.08155743 0.05625643 0.3491003 -0.5852645 -0.47653538 -0.2735678 0.2562917 0.29390284 0.0014426602 -0.15677209 0.06686656 -0.20673129
film	0.3940155 -0.06686236 0.10186694 -0.50954527 -0.3501713 -0.38819662 0.44903886 0.07192334 0.07911568 0.15164502 0.21838605 0.1148679
still	0.38757786 0.37448564 0.20256978 -0.26078266 -0.23581602 -0.17157525 -0.10200877 0.11085531 -0.62696433 0.08104921 0.006616273 -0.30506197
until	0.5353931 -0.35205764 0.3905835 -0.013727815 0.08420665 -0.12145521 0.30283558 -0.23613004 -0.34683058 -0.1587291 0.3283579 -0.11853945
north	0.0988633 -0.28084892 -0.17014436 -0.3384869 -0.110420525 -0.39222878 0.71138865 -0.10712234 0.16092145 0.16782448 0.17263487 0.01946105
international	-0.06288942 0.014509144 0.10219752 -0.65707767 0.13911118 -0.29717317 0.5593208 -0.094660014 -0.03253492 -0.045515165 0.21751133 -0.27153906
term	0.5171524 0.19437665 0.12000066 -0.5148858 -0.44644296 0.19193552 0.39102536 0.10188039 -0.11293806 -0.03423372 0.034656987 0.02654514
we	0.3022449 0.24998394 0.15268588 -0.16790086 0.0047572656 -0.35896656 -0.51781905 -0.23644777 -0.55810314 0.119124636 0.012662418 -0.1260898
end	0.21866591 0.25077677 0.1766334 -0.4402298 -0.37648043 -0.0899656 0.45563895 0.012897895 -0.032725662 -0.40792492 -0.16906089 0.33261794
book	0.34648317 -0.16949783 0.23221058 -0.2686701 -0.45546016 -0.25909457 0.26704636 0.010647068 0.011858501 -0.1947576 0.17487067 0.55719167
found	0.17791757 0.016242744 0.032638777 0.019501533 -0.39388412 -0.53272474 0.15587209 0.16669013 -0.57967615 -0.10360655 -0.1994056 -0.29848346
own	0.007983058 0.31734884 0.41130954 -0.14305578 0.13623239 -0.18848199 0.13161524 -0.46062696 -0.05660321 -0.19988115 0.6187443 0.0002712818
political	-0.32840478 0.06882068 0.26553497 -0.55626655 0.036913253 -0.4108409 0.32192037 -0.21333727 0.11739542 -0.21536598 0.24315763 -0.2624586
party	0.14124979 0.313018 0.063533254 -0.4550897 -0.30847082 -0.42151162 0.5313006 -0.102266826 -0.2134148 0.06401713 0.21519467 -0.09698996
order	0.4392123 -0.060304645 -0.32384002 -0.48034826 -0.13073501 -0.3562532 0.30386218 0.07460026 -0.09506797 -0.2557519 -0.37277654 0.11195726
usually	0.290729 0.33745313 0.22940782 -0.36355907 -0.21851063 -0.04429285 -0.114985906 0.11406035 -0.63975275 0.117373 -0.033019535 -0.3416259
president	0.10164941 0.1515587 0.015047762 -0.3727279 -0.49300012 -0.43668827 0.510755 -0.12680236 0.0029290414 -0.033040754 0.21463384 0.2639726
church	0.22795337 0.33834133 0.033327565 -0.3716066 -0.34690565 -0.25718546 0.6795053 -0.06528178 -0.1435705 -0.070924096 0.09799521 0.08147135
you	0.20856692 0.37198636 0.14631969 -0.21895422 -0.028302725 -0.40561756 -0.5738521 -0.14139053 -0.47906426 0.027109984 -0.021111852 -0.0588942
death	0.24597736 0.4215476 -0.011074103 -0.21260431 -0.23549496 -0.3698782 0.38157794 -0.0012153502 -0.15610774 -0.32050267 0.32312033 0.38353652
theory	0.286326 0.18355465 0.091193065 -0.59410226 -0.6186016 -0.23966025 0.20679374 -0.015660679 0.13554135 -0.10500297 0.094640456 -0.039793007
area	0.23219638 0.04397095 0.2924424 -0.4362715 -0.6406221 -0.085227266 0.45063367 0.07542059 -0.048025455 -0.032339167 -0.10849686 0.16356362
around	0.4720338 -0.39730197 0.49100655 -0.3395343 -0.122499056 -0.3189179 0.27811173 0.09907885 -0.12821023 0.0047569177 0.20575836 0.0170301
include	0.3956585 0.11986748 0.22151402 -0.53496325 0.4571503 -0.31616902 -0.07261784 0.021582084 -0.103160635 -0.30941767 -0.060558926 -0.26285914
god	0.20003523 0.41111603 0.094330706 -0.38479394 -0.5594055 -0.430556 0.08234531 -0.066977285 -0.13139963 -0.24332748 0.18291809 0.12038297
ii	0.2386421 0.06530376 -0.29141447 -0.39816618 -0.057066765 -0.4022539 0.07476875 -0.10841475 0.10063397 0.2303445 0.6469928 0.17644311
way	0.2785476 0.10449135 0.3369778 -0.36997828 -0.42043447 -0.15021744 0.0054001203 0.047799587 0.039021876 -0.610858 -0.23253517 0.17512189
did	0.39258513 -0.16100068 0.091603175 0.0047427895 -0.10930126 -0.3642734 -0.0014312426 -0.3378336 -0.5219461 -0.404895 -0.07574314 -0.33265862
military	-0.15430935 0.13816226 0.049458098 -0.53003204 0.053944312 -0.46321714 0.5249394 -0.02706309 -0.001234473 0.11841554 0.3506878 -0.20721996
population	-0.16507152 0.07842343 0.49251574 -0.43615675 -0.33018643 -0.14022839 0.44810233 0.1359704 -0.064350195 0.24073346 0.20952657 0.28254414
using	0.07399107 -0.041357957 0.43192634 -0.5186718 -0.26522937 -0.2666364 0.18883187 0.22997479 -0.16463739 -0.24662913 0.18917154 -0.42840317
though	0.2550689 -0.15611732 0.29645112 -0.1587062 0.08579445 -0.08097311 0.2697329 -0.18190165 -0.5935546 -0.4932165 0.10131297 -0.26814377
small	-0.1661484 -0.25426567 0.29166108 -0.66314304 -0.17175232 -0.13774566 0.07003165 0.24758318 -0.028685616 -0.050603915 -0.2607248 -0.44371524
following	0.5033514 0.054603722 0.24447785 -0.50692296 0.0065335874 0.21851736 0.4361177 0.03500308 -0.13536574 0.07249403 0.35474512 0.1956422
within	0.48889336 -0.20858255 0.5393765 -0.45150226 0.063892744 -0.080000274 0.23979375 -0.055496737 -0.12341368 -0.054997172 0.24550915 -0.27037328
non	-0.49157757 0.054943264 0.3872964 -0.60987836 -0.005972554 -0.27618122 0.23971768 0.02761109 -0.18839432 -0.10287829 0.09188902 -0.21053219
left	0.27616042 0.06842602 0.15240037 -0.099574916 -0.18426271 -0.5921346 0.2475754 0.28973868 -0.3514006 -0.18417643 0.3837952 -0.22669782
human	-0.22550237 0.41860965 0.10539241 -0.64823836 0.08956159 -0.3645676 0.23749611 -0.24982639 0.09551101 -0.13941443 0.11753282 -0.20117882
main	0.32192755 -0.16426235 0.042556133 -0.48917314 -0.03841161 -0.35228428 0.083433785 -0.023655169 0.44192252 0.3371762 0.4021057 -0.15654558
among	0.21120234 0.3075715 0.560913 -0.30423188 0.12965938 0.12095572 0.31494063 -0.28281796 -0.43193355 0.025682794 0.20914613 -0.1096778
point	0.24827752 0.10987681 0.2970512 -0.4537789 -0.42387995 -0.3294127 0.20838228 -0.031283498 -0.0057837996 -0.41620567 -0.3420408 0.096381485
r	-0.17452274 -0.22797129 0.24008784 -0.14487137 0.21177587 -0.7265044 0.0045921663 0.12901229 -0.104953215 0.39648485 0.15773724 -0.23774326
due	0.36312768 0.029579626 -0.32796505 -0.62412727 -0.01751516 -0.41111305 -0.33920383 0.036208443 -0.07510828 -0.10826692 -0.22309346 -0.13169123
p	0.0040918435 -0.30487773 0.37475646 -0.1843098 0.0802823 -0.68417925 -0.14782326 0.13432156 -0.13855556 0.43116134 0.10826129 0.036900245
considered	0.32069913 0.13257506 0.33731034 -0.14982368 -0.44487664 -0.3215431 -0.17359589 0.2500286 -0.3456585 -0.10170067 -0.2503803 -0.39608365
public	-0.0264535 0.09616045 0.20710847 -0.60200197 -0.16452785 -0.41189694 0.54429233 -0.10899769 0.120795235 0.07065577 0.093539104 -0.22706138
popular	0.032776084 -0.047456224 0.16585512 -0.5526021 -0.09142537 -0.18128487 0.3476341 -0.0767011 -0.1934282 -0.22939798 -0.55464154 -0.3133307
computer	-0.083859906 0.003958219 0.15663943 -0.7399004 -0.20802766 -0.44717497 0.1590327 0.16122058 0.17305009 -0.26739424 0.10602172 -0.11726969
west	0.23413225 -0.2030147 0.029842017 -0.32844925 -0.12684713 -0.42895377 0.7348887 -0.114799306 0.036974728 0.15025584 -0.009806889 0.13351302
family	0.14158984 0.3908158 0.17104861 -0.43071404 -0.2579246 -0.2942219 0.377607 0.03194178 -0.079132706 -0.2833339 0.4785032 0.015454256
east	0.20681831 -0.06713005 -0.097037785 -0.32973176 -0.097426854 -0.39530918 0.78505564 -0.16355476 -0.03230068 0.15625176 0.009874101 -0.014190855
information	-0.13306843 0.24844885 0.31374827 -0.5084642 -0.3126683 -0.4734577 -0.04607816 -0.015612789 -0.26686236 -0.3196465 -0.24382332 -0.080390394
important	0.20524825 0.08777761 0.2643202 -0.5840133 -0.055411853 -0.07354371 0.106385574 -0.08425178 -0.12126219 -0.057155333 -0.6631813 -0.2335712
european	-0.33042616 -0.107349545 0.21705931 -0.3465555 0.31023493 -0.14744279 0.5988978 -0.3172253 -0.17221676 -0.2851618 0.11241038 -0.10569671
man	0.09722357 0.0074984455 0.17368451 -0.24959254 -0.5750422 -0.40565985 0.06490054 0.21361397 0.016074894 -0.48212126 0.33421704 0.0924758
sometimes	0.33473197 0.39222792 0.08214512 -0.35404462 -0.2798677 -0.070649974 -0.22080752 0.118668534 -0.5141423 -0.048877724 0.10553301 -0.4218913
right	0.09978006 0.24339847 0.13311087 -0.47644496 -0.01732657 -0.59639144 0.0641928 0.29894185 0.2066539 -0.33388072 0.2864967 -0.018723182
old	0.35455397 0.1269193 0.06517074 -0.5714057 -0.013359654 0.0773045 0.6063138 -0.13212445 -0.17589161 -0.058141716 0.21534531 0.23560871
free	-0.37135068 0.1836357 0.2727021 -0.62010497 -0.17434137 -0.29275474 0.0735146 0.046487775 -0.058183853 -0.15166333 0.017990356 -0.46808484
word	0.4273135 0.12626526 0.31819156 -0.54939115 -0.26879856 -0.068682685 0.5313484 -0.084349364 -0.06992358 0.12904623 -0.0993384 -0.02361123
without	0.16846378 -0.054300286 0.45272055 -0.50451314 0.105644464 0.04195493 -0.081666484 -0.0023974213 -0.32821465 -0.16143616 0.36361742 -0.47284433
last	0.5041158 0.059678823 0.29199442 -0.45525473 -0.2415375 -0.05048313 0.34079114 0.101924494 0.020234914 -0.08395502 0.3512856 0.36264673
us	0.20850421 -0.065120235 0.15125299 -0.46353042 0.048932794 -0.54993266 0.5700386 0.21295229 -0.0350221 -0.12665834 0.034492258 0.14483084
members	-0.32668003 0.31509048 0.3109441 -0.25529045 -0.21257031 -0.20944895 0.323246 -0.07016006 -0.4944423 -0.3124558 0.1200479 0.27777687
given	0.30815062 0.034666557 0.35873935 -0.24954264 -0.58994234 -0.29442254 -0.0032023266 0.346206 -0.20171611 0.011470701 -0.12247889 -0.32010707
times	0.047311798 -0.4368977 0.2725418 -0.30762517 -0.4380486 -0.23229428 0.34065166 0.29619914 -0.19920306 -0.22697121 0.11800331 0.28848302
roman	0.30542094 -0.12184327 -0.29412678 -0.5664095 0.031693432 -0.07687359 0.6391943 -0.14119194 0.06606781 -0.050777297 0.16975033 -0.11560664
make	0.45282128 0.15103081 0.05868272 -0.4132699 0.0031932741 -0.3728558 -0.30327693 0.17307934 0.044153214 -0.55660045 -0.057301756 -0.14800301
h	-0.028420843 -0.18635894 0.24184981 -0.14803112 0.2590113 -0.7651266 -0.054354142 0.064849205 -0.15198332 0.44101056 0.0820319 0.00861115
age	0.02763501 0.022460163 0.23280562 -0.39173827 -0.4408049 -0.09905419 0.61761004 0.0020287717 -0.10430107 -0.1620296 0.06656686 0.4049
place	0.43585756 -0.117638186 -0.18573906 -0.16432624 -0.66219234 -0.32056117 0.3017579 0.065021195 -0.13031687 -0.213849 -0.10488151 0.15629971
l	-0.14335041 -0.3348129 0.2135139 -0.12956351 0.17143841 -0.7564108 0.086744964 0.13555382 -0.09807972 0.3027166 0.21718541 -0.17059235
thus	0.30375093 0.25126094 0.20802565 -0.19775411 -0.10610498 -0.5665313 0.11893136 0.1374507 -0.4386407 -0.08524935 0.2771729 -0.34708896
science	-0.23124169 0.16740698 0.2537393 -0.59301656 -0.1769345 -0.44452226 0.47335842 -0.1445425 -0.07391409 -0.10853732 -0.105586074 -0.013831341
case	0.320977 0.15611194 0.30769163 -0.23539229 -0.52702457 -0.14792262 0.38491678 -0.06940588 -0.08079056 -0.45318422 -0.2098368 0.1181967
become	0.48668543 0.020863684 0.0920256 -0.3041859 -0.3635374 -0.04881768 -0.07969175 0.45549536 -0.42254615 -0.1453279 -0.23135935 -0.24523932
systems	-0.13055307 0.4662406 0.24561588 -0.54076546 -0.06421431 -0.30386695 0.08365052 -0.029615497 -0.4806669 -0.18853132 -0.057713833 -0.19639868
union	-0.05976931 0.28139612 0.22483855 -0.4130669 0.23672262 -0.12906845 0.5964123 -0.097389355 -0.2723449 0.37269792 -0.104280755 0.18501092
born	0.30236182 -0.098117925 -0.22599666 -0.07329741 -0.20609221 -0.5517483 0.27168986 0.07230108 -0.44437483 0.4644401 -0.054647896 -0.020006118
york	-0.02376524 -0.09748318 0.1815768 -0.3276378 -0.43676805 -0.0103953 0.2213497 -0.6259183 0.05628493 0.25343397 0.296455 0.2503785
line	0.1260864 0.07507333 0.11496396 -0.49991646 -0.58208275 -0.44556615 0.37136835 0.124261945 -0.0052681845 -0.15632583 0.005979312 -0.011263987
countries	-0.18082014 0.29314464 0.49493834 -0.2573575 0.008925391 -0.19516748 0.2934875 -0.14510526 -0.5271418 -0.2044415 -0.2215051 0.23679902
does	0.30408445 -0.36220813 0.074472785 -0.03888417 -0.17122747 -0.26219243 0.01054136 -0.4460506 -0.37811676 -0.3993832 -0.12750582 -0.39167175
isbn	-0.25402078 -0.6316802 9.622952e-05 -0.29533443 0.122846656 -0.18589 0.37614366 -0.04524859 -0.25884935 -0.09802717 0.42180455 0.039009742
st	-0.012095885 -0.5938846 -0.05003464 -0.02250065 -0.39347798 -0.39560497 0.4457824 -0.30059493 -0.11465696 0.11150314 0.12045604 0.060405206
control	-0.062829696 0.25833663 -0.0787633 -0.6185539 -0.4041809 -0.33129877 0.3305673 -0.038721457 -0.108906254 -0.35015354 0.12609226 0.07899123
various	-0.22145456 0.3276949 0.13909918 -0.49054137 0.16885766 -0.43455985 0.4003326 -0.09557352 -0.39341244 -0.0713487 -0.18760973 -0.042159162
others	0.014246593 0.4331584 0.3682396 -0.20871565 -0.21225376 -0.4703501 -0.14204735 -0.10918941 -0.40155014 -0.39275122 -0.04757122 0.12987944
house	0.11795836 0.1776594 0.14436224 -0.42748567 -0.17052163 -0.31768233 0.7309364 0.11953855 -0.12804614 -0.11301629 0.07746892 0.19290268
article	0.26679745 -0.18045017 0.14573292 -0.4447068 -0.33909643 -0.40317807 0.060649157 -0.18848313 0.35132784 -0.38689697 -0.15547597 0.25143224
island	0.28325373 0.24456415 0.13380952 -0.35425502 -0.32075498 -0.27162057 0.68473077 0.10904066 -0.10462135 0.013761256 0.21582218 0.037844226
should	0.029468138 -0.29528806 0.24469972 0.13788912 -0.034184597 -0.36603534 -0.009801344 -0.3910329 -0.49054745 -0.22972725 0.27545103 -0.41905537
led	0.48258403 -0.04915955 -0.21368806 -0.18526462 -0.46677753 -0.5723855 -0.027899452 0.12272589 -0.08988927 -0.27991802 -0.12545389 -0.14557149
back	0.35958073 0.07034694 -0.27260435 -0.5709684 -0.22729076 -0.54403627 -0.10251276 0.13720053 0.14327012 -0.23761067 0.013296601 -0.106319495
period	0.32772598 0.03700778 0.09118474 -0.34415165 -0.6560557 0.019694502 0.34411857 -0.062435336 -0.08420679 -0.41053784 -0.0247961 0.18738061
player	0.4770496 0.032963313 0.41480544 -0.3169423 -0.3289373 -0.49328527 0.069206625 0.27001494 0.11716458 0.11031918 -0.20898747 0.0044259983
europe	0.19253455 0.004022116 -0.07688778 -0.1726595 -0.32733527 -0.5227712 0.5787918 -0.19388989 -0.27443373 -0.020978916 -0.2826584 0.13605222
languages	-0.21007603 0.3200209 0.50326276 -0.27478975 0.0019977342 -0.055397987 0.39399588 -0.14615919 -0.5671531 -0.12334735 -0.09004959 -0.0041703256
central	0.12277038 -0.2601713 -0.011454806 -0.5091716 -0.07753706 -0.28495887 0.71531796 -0.06444173 0.085714065 0.14429155 0.03265813 -0.15991159
water	0.022544239 0.27462688 0.263714 -0.53065103 -0.37165678 -0.54164326 0.24923217 0.22348419 -0.15271173 -0.06391738 0.01790017 0.040515963
few	-0.07145712 -0.3198398 0.44028267 -0.55160075 -0.2076255 0.11129245 0.11639915 0.23773521 -0.15011102 -0.47058788 -0.08561888 -0.13268904
western	0.20477964 0.055497285 -0.026182342 -0.47738025 0.18565106 -0.22456707 0.72482646 -0.20192191 -0.11814228 -0.09470957 -0.22117323 0.059331737
home	0.24451897 0.3455224 0.009785271 -0.40804115 -0.2981815 -0.5479686 0.38742158 0.14128436 -0.1094451 -0.25458816 0.08417246 0.10542405
began	0.37060392 -0.021234866 -0.34808472 -0.34479097 0.07824969 -0.5450281 0.079918645 0.089637645 -0.09762734 -0.51836705 0.10372276 -0.124754354
generally	0.32260764 0.29257312 0.28704467 -0.29963574 -0.2283101 0.01599524 -0.14220592 0.14322801 -0.6014726 0.10081196 -0.06435172 -0.4110442
less	-0.30791742 0.35346484 0.36340246 -0.52355105 -0.10771916 -0.107323684 -0.35880587 0.237583 -0.2695223 -0.0029313168 0.11126144 -0.28415394
k	-0.1539211 -0.23446524 0.3430674 -0.21140502 0.09602016 -0.72483766 -0.06267945 0.25360313 -0.08314126 0.29704276 0.14576091 -0.19925176
similar	0.16308644 0.13526948 0.011739452 -0.6708648 -0.20171869 -0.19466275 -0.14685428 0.23821951 -0.11794478 -0.09989767 -0.37890604 -0.4249099
written	0.047817037 -0.12700672 -0.006715974 -0.14126094 -0.6405696 -0.5074811 -0.026516316 0.18080878 -0.39425072 0.1906878 -0.16789354 -0.20084314
original	0.22972102 0.026422156 0.42684755 -0.5205387 0.1042892 -0.2946494 0.3324865 -0.24442627 0.3230332 0.014954091 0.34242535 0.05962802
best	0.22986184 0.34556347 0.22665702 -0.49428594 -0.4246851 0.22313707 0.10708399 0.23849173 -0.13886894 -0.2144973 0.39945498 0.093309455
must	-0.03105864 -0.31345183 0.15887968 0.14802758 0.01753212 -0.3709213 -0.011779394 -0.35517687 -0.5566978 -0.14452516 0.32556412 -0.39071357
according	0.3410278 -0.12202274 -0.34296355 -0.5889886 0.18673699 -0.3823444 -0.3343562 -0.048726417 0.033148546 -0.29489055 -0.14000927 0.037294447
school	-0.18968545 0.11321288 -0.015689865 -0.55282015 -0.33867967 -0.08856414 0.63031465 0.09263986 -0.17561464 -0.13889 0.258339 -0.007058155
france	0.16020288 -0.045248635 -0.1988561 -0.16880941 -0.3574683 -0.70439 0.38218504 0.063371435 -0.23474075 0.10787366 0.011958352 0.2516631
air	0.13100035 0.11202371 -0.2004103 -0.458581 0.30682594 -0.5009628 0.31598714 0.20460644 0.0024992498 0.28504178 0.12943387 -0.3674275
single	-0.15332219 -0.4306292 0.17434642 -0.65251255 -0.26973766 -0.04534508 0.1426731 0.27629942 0.09801747 -0.11030124 0.06490323 -0.37065336
force	-0.20079018 -0.1929226 0.09517863 -0.30284318 -0.4895233 -0.2907639 0.54643255 0.1908372 -0.30646706 0.08017487 0.21601877 -0.124470584
v	-0.10889946 -0.28326958 0.11799187 -0.23058239 0.15981722 -0.7508772 0.060161542 0.10041258 -0.28423366 0.36132917 0.13942263 -0.08344154
land	0.05692206 0.1866388 0.27319288 -0.41188768 -0.43212768 -0.5699203 0.35905844 0.047414444 0.008892933 -0.059052482 0.09795765 0.24852268
groups	-0.28264773 0.3885759 0.36776337 -0.39823857 -0.11518582 -0.3215887 0.22391503 -0.10718637 -0.487403 -0.23940372 -0.017201675 0.042304087
down	0.2670288 0.12662075 -0.034426544 -0.4485966 -0.21431366 -0.6968694 0.079287715 0.07554635 -0.024328748 -0.23452178 0.18937446 -0.27428555
how	0.046213556 0.39618456 0.12438049 -0.4736713 0.0013938479 -0.27523336 -0.11973138 0.31729534 -0.26410818 -0.55117005 0.18373139 -0.054781504
works	0.019841434 0.47426876 0.33293444 -0.20514746 -0.3202668 -0.19631815 0.2643196 -0.062034126 -0.37190306 -0.36517107 0.27418205 0.24511714
development	-0.10370027 0.31250885 0.1653003 -0.5002715 -0.3446047 -0.16861394 0.5512944 -0.06683815 -0.081298165 -0.3224754 0.1886832 0.11050574
official	-0.24439944 -0.025248475 0.24632879 -0.6561111 0.045497037 -0.21309131 0.23880321 -0.050231084 0.25533676 0.03600876 0.521533 -0.05434665
support	0.14610702 0.37986672 0.14121674 -0.5085792 -0.09105043 -0.4049962 0.1965439 0.043804627 -0.13388133 -0.48738605 -0.28634515 0.07372737
england	0.18655404 0.03331652 -0.11699212 -0.21220995 -0.48947942 -0.58345956 0.37464494 -0.1655384 -0.16703545 0.013908509 -0.08958663 0.34852594
j	-0.09920289 -0.3106519 0.17656362 -0.13665617 0.15849733 -0.75225407 0.006993517 0.19315492 -0.052414976 0.33063197 0.21362606 -0.2402881
rather	-0.19645709 0.32672855 0.37796095 -0.58346885 0.23774374 -0.19022234 -0.4680936 0.09646048 -0.17627348 0.012052956 0.11761177 -0.07203915
space	-0.022441655 0.10220934 0.28904718 -0.54202425 -0.21016869 -0.51076293 0.45143476 0.20819232 -0.20107903 0.030899493 -0.051366236 -0.12449185
data	0.14115798 0.45282206 0.20168795 -0.6297333 -0.2649186 -0.32215574 0.16556166 0.028789934 -0.29831937 -0.10764316 -0.11273879 -0.14929014
greek	0.08325659 0.12760973 -0.045261998 -0.5714979 -0.100639544 -0.22333872 0.7183452 -0.18138959 -0.03978895 -0.15676793 0.033747766 -0.109071344
km	-0.3370501 -0.53868574 0.20337103 -0.34420788 0.021157654 -0.35640642 0.16590801 0.09788984 -0.32688302 0.002717318 0.223409 0.3391509
named	0.20033684 0.2552567 -0.14165896 -0.16198987 -0.46723697 -0.350991 -0.051005214 0.1491467 -0.52724135 0.2295939 0.38583615 0.049836874
germany	0.21967284 -0.02723584 -0.25812525 -0.13964424 -0.3170522 -0.55597407 0.54419243 -0.08511264 -0.29118794 0.17224391 -0.027787117 0.19137259
just	0.34642082 -0.05821443 0.32633758 -0.17105728 -0.625043 -0.4282296 -0.24299636 0.061275233 -0.18833199 0.05496371 -0.22291769 -0.12571165
games	-0.09738385 0.22466168 0.3250621 -0.5147729 -0.20854558 -0.26990184 0.12194309 0.1463147 -0.6210255 -0.15256235 0.074499786 0.04767241
said	0.45871615 0.28952175 -0.05654443 -0.06864963 -0.41900307 -0.49010763 -0.20514652 0.08369869 -0.3802205 -0.2639771 -0.015652051 -0.13597961
version	-0.2223208 -0.13769168 0.077802815 -0.43054217 -0.63489217 -0.06583438 0.386855 -0.016088685 -0.13667537 -0.11582229 0.29324594 0.25449687
late	0.3919584 -0.35805306 0.23323552 -0.20757784 -0.3114244 -0.4265802 0.37482452 -0.097159855 0.16373911 0.19538139 -0.32056558 0.15505835
earth	0.39838722 0.27900183 0.13648912 -0.13234408 -0.30558333 -0.7248251 0.28306723 0.008187051 0.08822953 0.019378403 0.042235952 0.13568652
company	0.35971156 0.21761449 0.20601478 -0.38183394 -0.46064115 -0.4903147 0.25962642 0.096651405 0.003291913 -0.028532654 0.31886974 0.056243356
every	-0.11656906 -0.1632082 -0.15860304 -0.63778067 -0.1687157 -0.07738891 -0.1712805 -0.19367164 -0.5673058 0.169255 -0.2499278 0.11665776
economic	-0.24759819 0.26922977 0.17625278 -0.57832533 0.063233554 -0.444812 0.33239508 -0.3235093 0.14245063 -0.03796925 0.19685158 -0.15231599
short	0.0026736453 -0.2596283 0.11731628 -0.7257702 -0.52502483 -0.0767933 0.022867998 0.1842902 0.20035936 -0.11242943 0.1013892 -0.113941096
published	0.3207099 -0.16869839 -0.11053596 0.004506456 -0.52378 -0.5235644 0.27959707 0.27439743 -0.3589353 -0.14250705 0.03561606 -0.06405406
black	-0.17431195 -0.05467137 0.07199896 -0.5314228 -0.19585615 -0.42570356 0.27847233 0.27973974 0.02121871 -0.049671527 0.5272408 -0.15082373
army	0.3055114 0.21920751 0.115797214 -0.13563327 -0.08345014 -0.60667217 0.58108467 -0.23079187 -0.11668748 0.13313925 0.13098375 0.11120959
off	0.26217335 0.13374501 0.17535736 -0.54216003 -0.39789134 -0.4522749 0.26781687 0.074100874 -0.044457965 -0.18642765 0.2720747 -0.19454148
london	0.2738261 -0.11275731 -0.24972908 -0.33702865 -0.24859427 -0.55946213 0.5340684 0.04723258 -0.21000272 -0.00034347156 -0.063179225 0.16125192
million	-0.18052392 -0.3408917 0.36869386 -0.33185545 0.13297088 -0.17955063 0.077379644 -0.014991719 -0.55992824 -0.21352379 0.077124245 0.42889214
body	0.19307812 0.48339126 0.19982636 -0.45114273 -0.44080508 -0.23214844 0.2761982 0.05374788 0.01547791 -0.24073137 0.29106447 0.123722956
field	0.09187855 0.13991708 0.24162932 -0.5787308 -0.42317814 -0.33389506 0.43233195 0.2521869 -0.023780055 -0.05416133 0.16192625 -0.08873308
christian	-0.028733127 0.033134397 0.07867184 -0.71370304 0.26304507 -0.21734443 0.4379314 -0.12605025 -0.15036932 -0.27814662 0.24119303 -0.01615453
either	0.106522635 0.21703771 0.19019775 -0.4651594 -0.49289235 -0.46463242 -0.12130901 0.21313792 -0.24935818 0.13317028 -0.1652531 -0.25061303
empire	0.20407943 0.05994217 0.19696997 -0.037310448 -0.13004914 -0.58708847 0.4581891 -0.52384007 -0.010952862 0.18086292 -0.08800752 0.16751567
social	-0.32305473 0.19666854 0.23524769 -0.52424186 -0.03913927 -0.48360357 0.28497076 -0.20730051 0.12695995 -0.15877607 0.20055947 -0.29265562
o	-0.07590152 -0.27895543 0.18814874 -0.16185324 0.21076177 -0.68169546 -0.030445235 0.14625111 -0.16971304 0.40578362 0.30214113 -0.19654173
developed	0.1860724 -0.03667648 0.09612666 -0.11318128 -0.6072081 -0.34101608 0.18092895 0.31764677 -0.4273272 -0.25148413 -0.05736102 -0.27241546
standard	-0.1107143 0.018377716 0.4342574 -0.6446734 -0.10357211 -0.29157954 0.4988639 0.120596685 0.110721976 0.03157261 -0.10253183 0.017258255
court	0.13054389 0.34205863 -0.0075223045 -0.5564543 -0.3495745 -0.102342226 0.55517465 0.054517888 -0.24849708 -0.08927196 0.1930619 -0.073455244
service	0.10889345 0.3308014 -0.15573633 -0.5621624 0.013719198 -0.4360724 0.5208098 -0.03936035 -0.19907844 -0.03679917 0.15250927 -0.10510583
kingdom	0.35610887 0.06825288 0.04271827 -0.16851139 -0.24090841 -0.019795451 0.63523984 -0.27031076 -0.3813588 -0.09414105 -0.2886697 0.25622955
along	-0.22516687 0.30761236 0.2681552 -0.65526694 -0.038133178 -0.36917445 0.2382334 0.29383016 0.056384627 0.08930325 0.19036 -0.15863816
college	0.15898436 0.23936424 -0.090977274 -0.49001998 -0.24056727 -0.3876627 0.5772508 -0.19225925 -0.07509945 0.046290167 0.2505036 0.14198671
republic	0.030768752 0.2066134 0.0533085 -0.3860118 -0.43129793 -0.21757814 0.62834406 -0.060276035 0.015557576 0.022425037 0.30587742 0.2800067
sea	0.29750505 -0.02124114 0.07909205 -0.5654811 -0.08498923 -0.3344272 0.5829283 0.012805889 -0.11422501 0.089419216 -0.30843306 0.099029675
america	0.24158566 -0.07602446 -0.16298783 -0.30081433 -0.3521026 -0.3561141 0.5774116 -0.25627586 0.0069196336 0.35637385 -0.17812563 0.10073995
today	0.30038908 0.4782106 0.22582637 -0.32403335 -0.3364053 -0.20235795 0.12241287 -0.03942886 -0.51478326 -0.2104104 0.20619287 0.05137232
result	0.24634077 0.14270265 0.19864069 -0.44142115 -0.48252425 0.022364192 0.21634218 0.47628608 -0.19721869 -0.3193471 -0.17587626 0.07647822
held	0.25482163 0.0073717386 0.051146362 0.067534074 -0.49911404 -0.5495159 0.14144412 0.11961451 -0.55628717 -0.070800155 -0.11434439 -0.12204821
team	0.3017887 0.17757764 0.2458581 -0.4582211 -0.5252903 -0.35341594 0.26525226 0.16070597 0.10561013 -0.0960214 0.29733294 0.034332786
light	-0.067262195 0.34849072 0.30241218 -0.5507015 -0.27210188 -0.30564326 0.19773263 0.22992367 -0.25041 -0.3189124 0.073852345 0.22365195
means	0.04758159 -0.03965717 0.122257546 -0.22654018 -0.4436187 -0.33577618 0.09276472 -0.29139042 -0.054863513 -0.70776975 -0.1403982 -0.05638821
never	0.47611922 0.102797255 -0.016586453 -0.12564844 -0.23169872 -0.20664984 -0.2995639 0.24640748 -0.55199736 0.04681994 0.3415341 -0.27622125
especially	0.269105 0.32840133 -0.032528356 -0.45129243 -0.12715487 -0.29754677 0.26076016 0.0016100343 -0.60096616 0.11712934 -0.25719312 -0.035821807
third	0.24455026 -0.26543936 0.102798484 -0.5124796 -0.3378661 -0.03758054 0.58659554 -0.11580803 0.2227807 -0.17556211 0.18614604 0.09142725
further	0.07236011 0.16484098 0.1635766 -0.50686854 -0.15241283 -0.49426416 -0.029388737 0.19441098 -0.39925426 0.07648694 0.039647005 -0.45924538
character	0.1636636 0.10492974 0.16482562 -0.51521313 -0.5357055 -0.26814508 0.21424851 0.27138752 0.105764546 -0.3393416 0.23512566 0.09763863
forces	0.05764377 0.38797614 0.054767646 -0.21024933 -0.025530519 -0.4758462 0.5392067 -0.20650135 -0.4685936 0.04823214 0.088800386 0.09320795
take	0.5900559 0.055026744 0.015048525 -0.43733007 -0.09443883 -0.30962744 -0.27414513 0.21469513 0.019737877 -0.44763228 -0.17444257 0.009501455
men	-0.06783284 0.37742043 0.40605608 -0.11876988 -0.14411679 -0.56353265 -0.042068984 -0.03518649 -0.19660456 -0.30400485 0.18590917 0.4086365
society	-0.033471555 0.16890016 0.08230512 -0.43171066 -0.3716902 -0.5090175 0.5751646 -0.17334905 -0.10473381 -0.03385316 0.055414237 0.06246274
show	0.64100206 0.13255921 0.073846966 -0.35031363 -0.31438664 -0.4816219 -0.008542397 0.06600029 0.073637575 -0.31295493 0.04779518 -0.049959563
open	0.05526126 0.13221025 0.41634429 -0.60633796 0.007154309 -0.43866143 0.0802332 -0.053269796 0.19579805 -0.0077128396 -0.42423064 -0.13549995
possible	0.26518413 0.19532116 0.2031134 -0.34817743 -0.56275976 -0.35244536 -0.26557487 0.123788446 -0.19317424 -0.11164703 -0.3169195 -0.22815634
fact	0.6111742 0.03275082 -0.04122621 -0.10872985 -0.37148774 -0.28399885 0.40636027 -0.15071884 -0.15774326 -0.2813465 -0.31667697 0.032328878
battle	0.19150642 0.13946678 -0.041404184 -0.49531576 -0.36142105 -0.1385179 0.54871017 0.21166974 0.012114978 -0.24195953 0.17253478 0.33565423
took	0.49856198 -0.31301436 -0.011427125 -0.21532573 -0.28609914 -0.10780262 0.103865966 -0.116569996 -0.2128928 -0.5277639 0.39970148 -0.074108854
former	0.05240811 0.089981504 0.2583854 -0.5188564 0.23467535 -0.2503799 0.69330615 -0.10066335 -0.06428493 0.02774146 0.17597447 0.09350616
books	-0.08739804 0.13948683 0.4950188 -0.14365058 -0.29504055 -0.4036765 0.26325986 -0.19635628 -0.39891234 -0.16042164 0.12431142 0.38605854
soviet	-0.23325223 -0.2289799 0.02792745 -0.2067397 0.00928194 -0.110872984 0.6856546 -0.32570967 -0.040442362 -0.21812855 0.4534397 -0.07892616
river	0.29229534 -0.003433214 0.03327688 -0.37901148 -0.23609285 -0.5632516 0.5402833 -0.023005534 -0.11046474 0.085053705 0.021620804 -0.29062504
children	0.1151577 0.17548262 0.4063095 -0.04475028 -0.29234526 -0.5412955 0.14683795 0.080593996 -0.2676542 -0.2586823 0.14270353 0.4726645
having	-0.10202818 -0.09941353 0.19771093 -0.42366692 -0.5262191 -0.33671698 -0.30151752 0.26613334 -0.04354598 -0.30194834 0.13248919 -0.31381023
good	-0.055939067 0.12731394 0.45835853 -0.5496985 -0.5440404 -0.13731176 0.027262975 0.13984758 -0.19128467 -0.14250652 -0.05376573 -0.27106696
local	-0.16086325 0.019559614 0.13395543 -0.6597198 0.04203444 -0.22509052 0.51747817 0.079386674 0.022746937 -0.27650583 0.159738 -0.30258638
current	0.078675725 0.22658683 0.2960754 -0.6679117 0.07344731 -0.29607987 0.462973 0.004720069 0.111412995 -0.011111 0.29532817 -0.039023507
son	0.029637257 0.2761798 0.14129569 -0.24475425 -0.40692765 -0.19080697 0.40401345 -0.02237983 -0.0460543 -0.37789878 0.5185896 0.25177062
process	0.35538784 0.2782584 0.17417435 -0.37550092 -0.5844632 0.020461433 0.29728162 0.046625983 -0.10771512 -0.41964257 -0.06724879 -0.011956648
natural	-0.22285533 0.022284804 0.3526261 -0.70896447 0.10990107 -0.38008088 0.32020518 -0.057575885 0.10908577 -0.084492594 -0.118547514 -0.16548319
present	0.51771444 0.013719361 0.033296347 -0.29739827 -0.36877462 -0.44818848 0.43049654 0.233523 -0.2382039 -0.004834829 -0.0756673 -0.05487544
himself	0.16759133 0.13764702 -0.23814785 -0.4301312 -0.51805806 -0.4570301 -0.18154396 0.06387769 -0.2885222 -0.17340723 0.1113326 -0.26688957
islands	0.05483918 0.25521967 0.30410087 -0.31137642 -0.21026586 -0.32556143 0.64234024 -0.010985508 -0.403497 0.09465161 0.048054878 -0.07362963
total	-0.10883937 -0.46674237 0.11204585 -0.67766386 -0.053318605 -0.021068443 0.4378506 0.19100538 0.15555519 -0.20066866 -0.021504782 0.045958575
near	0.4330163 -0.038922783 0.27992868 -0.50788075 0.014871453 -0.33592388 0.38440204 -0.08141032 0.006205611 0.19120221 0.27174678 -0.31109032
white	-0.15888926 -0.17305794 0.24367347 -0.41552788 -0.22891028 -0.6295702 0.40205285 0.078641035 0.07539429 0.048013188 0.28147376 -0.09464936
days	-0.017466564 0.04195438 0.26211742 -0.39356807 -0.34870785 -0.008520066 0.0751776 0.16215861 -0.39990908 -0.33124414 0.20267713 0.55676615
person	0.23881496 0.007547938 0.21541701 -0.3571452 -0.56346387 -0.2173875 -0.1362562 0.30172098 0.087050855 -0.4873492 0.0812635 0.20715275
itself	0.36784092 0.19872542 -0.08777755 -0.500953 -0.49454233 -0.375667 0.02071949 0.042236533 -0.19537352 0.1624659 -0.18277456 -0.28400537
seen	0.14090082 -0.07354063 0.09881946 -0.12773697 -0.725742 -0.32862788 -0.21059117 0.026032243 -0.39201778 0.009806851 -0.26772332 -0.20852526
culture	-0.010577507 0.2939673 0.3098774 -0.4888464 -0.48060203 -0.20202261 0.4788534 -0.21383387 -0.14371388 -0.096645735 -0.014827504 -0.038021296
little	0.057478998 0.07921685 0.2499053 -0.5259278 -0.5564478 -0.0070357076 -0.10055436 0.31673625 -0.2766416 -0.046771795 -0.027591616 -0.38957945
above	0.31140095 0.20112963 0.52296954 -0.39259532 -0.25154772 -0.21115494 0.15884086 0.26096252 -0.20685631 0.036789764 0.4183517 -0.12079836
software	-0.09739203 0.45901698 0.35121205 -0.6774588 -0.08858769 -0.14854227 0.07270303 -0.1971826 -0.18249874 -0.10315582 -0.083914906 -0.26916578
largest	0.19849592 0.012853162 0.1775111 -0.5019035 -0.15903272 -0.18789066 0.59673655 -0.23312582 0.24199541 0.064788386 0.28724205 0.2464002
words	-0.10538238 0.30231667 0.46968627 -0.24205118 -0.06168655 -0.20515311 0.38309243 -0.09259143 -0.48711923 -0.30134538 -0.19661258 0.22434047
upon	0.41476086 0.0026419272 0.16724552 -0.40079376 -0.023143217 -0.30432624 -0.13294196 -0.035877354 0.107149236 -0.282905 0.60054624 -0.2740017
level	-0.21458724 0.009343887 0.12722684 -0.62725425 -0.35969213 -0.083341785 0.59129506 0.12631294 -0.08841254 0.021027667 0.1783829 -0.04734769
father	0.3332792 0.37881887 0.11117702 -0.10030773 -0.30248547 -0.27249554 0.24312426 -0.13676117 -0.032651044 -0.23196654 0.5731601 0.3099157
created	0.30859357 -0.010661782 0.10147034 -0.0016826387 -0.59345 -0.5309307 0.15168443 0.2819252 -0.32491833 -0.013991982 -0.027845612 -0.22639357
side	-0.06934196 0.095424965 0.43907157 -0.25026134 -0.41076663 -0.23361908 0.56674916 -0.15474014 -0.21365888 -0.20235741 -0.15477839 0.22728851
red	-0.090477645 -0.06796389 0.043779343 -0.6008008 -0.15258978 -0.3662206 0.4326392 0.19583744 0.056792855 0.0731877 0.40880442 -0.25628784
references	-0.2708058 -0.17803153 -0.051154956 -0.56529856 0.39127502 -0.3449304 0.16547757 0.28727815 -0.34024802 -0.06213693 0.114682525 -0.24088004
press	-0.14799768 -0.1822559 0.42530853 -0.44297272 0.032664854 -0.24240762 0.28192726 -0.53936493 0.16422324 0.15622737 -0.04298426 0.29037482
full	-0.021774316 0.025959892 0.038136058 -0.7284539 -0.34294695 0.0462625 0.3560995 0.26610088 -0.050830744 -0.0059807356 0.34676442 -0.16284402
region	0.38356972 0.21467732 0.19282524 -0.40381658 -0.58770895 -0.27770066 0.40935278 0.008947928 0.024586111 -0.10834926 0.031238688 0.055222187
almost	0.25700006 0.3239227 0.48292926 -0.3191182 -0.36624038 -0.24210426 -0.23918846 0.046818968 -0.48684216 0.05943729 -0.023419203 0.026863635
image	-0.15536755 0.07521598 0.19553097 -0.63101166 -0.19359697 -0.29585475 0.45400116 0.17241542 -0.1895121 0.05875055 0.3489163 -0.108776785
al	-0.15475412 -0.2519504 0.09394808 -0.3821216 0.11522252 -0.47733617 0.276198 -0.04964644 -0.33514047 0.35744143 0.25188476 -0.36650157
famous	0.10430497 0.24111173 0.33933675 -0.5309398 0.01200717 -0.12683542 0.37953052 -0.30082175 -0.18478599 -0.26193696 -0.423781 -0.028698362
play	0.3592561 0.12027402 0.100765586 -0.42757663 -0.31731907 -0.4784686 -0.031273454 0.36110243 0.008167584 -0.43088624 -0.12552631 -0.031790122
came	0.25974995 -0.09831775 -0.4281443 -0.31650075 -0.07299381 -0.5534543 -0.14014186 -0.05333233 -0.18518011 -0.5196731 -0.001731232 0.030078005
role	0.098964244 0.08357444 0.018243685 -0.38381672 -0.62394196 -0.05913003 0.573584 0.025668943 -0.20547126 -0.22310203 -0.07003285 -0.12735088
once	0.6163856 -0.02063291 0.11980065 -0.09788088 -0.42861718 -0.24605328 0.0576773 0.18033709 -0.49106234 -0.07799709 0.14906007 -0.214854
certain	-0.07889906 0.0024125888 0.041012764 -0.6833724 -0.22344016 -0.19869466 0.16892585 0.09597063 -0.23401211 -0.21923144 -0.33582675 -0.42700616
league	-0.38122144 -0.035651006 0.13182054 -0.40123096 -0.20359585 -0.25088406 0.6038001 0.043573428 -0.07569692 0.29383752 0.28883177 -0.16933624
jewish	-0.1561466 0.07329702 0.09841007 -0.68934304 0.23711249 -0.34877318 0.43534032 -0.15442346 0.084000535 -0.17603917 0.23615338 -0.017898386
james	0.04615561 -0.2091535 -0.23230562 -0.28080094 -0.030249143 -0.7487443 0.13059086 0.0792158 -0.018149093 0.25931427 0.41093802 0.002000866
january	-0.07330937 -0.45368674 0.08850559 -0.17175932 -0.15756102 -0.67088 0.2443858 -0.11160003 -0.14030875 0.28038442 -0.17884149 0.27219316
site	-0.12722741 -0.09000405 0.109176226 -0.36993536 -0.3629978 -0.09244206 0.76636845 0.013384388 -0.22618982 -0.010615601 0.0465869 -0.21373644
again	0.5406317 -0.05044454 -0.17872228 -0.16962658 -0.4260522 -0.46557826 -0.054990716 0.012356511 -0.43469703 -0.13753973 0.12096552 -0.14312993
numbers	-0.19680037 0.24379 0.5421238 -0.50119966 -0.40877783 -0.030772462 0.07716518 0.074921876 -0.33839652 -0.04267282 -0.12333123 0.21349172
art	-0.080175504 0.25169474 0.22569905 -0.45025855 -0.3099549 -0.51109004 0.5057381 -0.18598503 0.013735349 -0.16689229 0.029328445 0.0006348411
member	-0.31759536 -0.18385 0.071222514 -0.4814343 -0.06766798 -0.011242302 0.62859255 0.13867423 -0.15555786 -0.4257003 -0.04603941 -0.0433324
areas	-0.15108593 0.3337135 0.3417449 -0.43513986 -0.19191422 -0.0684749 0.32808203 -0.111687295 -0.4230848 -0.37923402 -0.24004184 0.13266967
movement	0.13366915 0.5394039 0.041030724 -0.4174579 -0.32605052 -0.3343575 0.4375468 -0.11121971 -0.11198781 -0.2084704 0.18277921 -0.062377263
religious	-0.38991222 0.1665157 0.34016976 -0.5405074 0.05144595 -0.40550354 0.2833879 -0.18757352 -0.07597001 -0.19715707 0.14252093 -0.25465733
type	-0.111779965 -0.09902065 0.29243913 -0.36172885 -0.61848235 -0.07189264 0.3309198 -0.061927248 -0.042686123 -0.47121853 -0.12779285 0.14177425
march	0.014079839 -0.40738645 0.13888013 -0.11424129 -0.191969 -0.7082795 0.21146928 -0.06928005 -0.14573196 0.19785737 -0.2339223 0.31362954
community	-0.16585146 0.2703634 0.27969834 -0.50764096 -0.18814541 -0.4230708 0.49481308 -0.08585331 -0.11711159 -0.20847385 0.097081296 -0.17397395
story	0.19861089 0.108250394 0.2590829 -0.41442695 -0.6802259 0.009351713 0.3204479 0.13017213 0.03086359 -0.19791046 0.16722533 0.24382406
played	0.11445156 -0.05784533 0.2057702 -0.042474635 -0.5096514 -0.41219455 0.14217296 0.2749664 -0.49955782 -0.22093357 -0.15008509 -0.30503362
production	-0.028834075 0.14260828 0.03395903 -0.41522944 -0.49063367 -0.3475284 0.50221425 0.21067373 -0.19282646 -0.12645575 0.29754767 0.07385853
released	0.30388936 -0.110165775 0.005969531 0.018081892 -0.6065936 -0.5566655 0.081043035 0.26086575 -0.32946765 0.10499702 -0.12043935 -0.09285468
center	-0.11831654 0.26507467 0.24423553 -0.6769723 -0.109311186 -0.28906882 0.53523165 0.111731626 -0.003965659 0.0065973504 -0.031079357 -0.04798106
rights	0.17494795 0.4482125 -0.0020418006 -0.5388116 -0.018115662 -0.26309553 0.17470634 -0.4605198 0.14970395 -0.3753264 0.051524244 0.009606439
real	0.33618516 0.054024946 0.07094177 -0.83553815 0.03849506 -0.054487213 0.30078766 0.047197435 0.0072139953 -0.2587297 -0.10216413 0.07951069
related	0.05196993 0.22356214 0.06345591 -0.559141 0.08825695 -0.5998958 -0.29672664 -0.010245323 -0.098583765 -0.15117879 -0.19368479 -0.32365134
foreign	-0.34333467 -0.08799136 0.10871651 -0.50711 0.13631114 -0.43590146 0.53080285 -0.19325368 -0.09329337 -0.10420521 0.022863561 -0.24005063
low	-0.16228668 -0.054637495 0.32172754 -0.6185274 -0.32235506 -0.3309433 0.25812823 0.01481392 0.068715595 -0.014822025 -0.205965 -0.39616174
ancient	0.088691905 0.11697515 0.121516444 -0.44795775 0.0118003655 -0.39604378 0.62892497 -0.39731652 -0.015878184 -0.09866391 -0.18343453 0.0947974
view	0.29579866 0.35242257 0.08713753 -0.26643345 -0.5466192 -0.12959044 0.32068235 -0.16253132 -0.13859168 -0.4598452 -0.06259183 0.17406607
terms	0.102457225 0.3045843 0.06724177 -0.4053317 -0.14956856 -0.04025985 0.5067591 0.1715991 -0.46585208 -0.31277725 -0.17632608 0.26783293
source	-0.418867 -0.10474658 0.20141612 -0.5049596 -0.49702218 0.07225363 0.3797909 0.07189285 -0.07075468 -0.19498488 0.12535988 -0.24005055
act	0.24286518 0.05993017 0.1858529 -0.34358284 -0.5671313 -0.5049226 0.18345195 -0.14296299 0.07822165 -0.19883363 -0.3221478 0.06873173
minister	-0.10848694 0.3003737 -0.17161277 -0.3633353 -0.16756058 -0.39245135 0.55066216 -0.12469474 -0.25810635 0.07961149 0.3538102 -0.19373156
change	0.4722146 0.2667682 0.07953505 -0.4567648 -0.3384094 -0.3438489 0.11071673 0.26126358 -0.08443601 -0.3629412 -0.18975991 -0.05247544
energy	-0.052825544 0.35328323 0.3286289 -0.6725468 -0.29067832 -0.25628647 0.31136748 0.018195925 -0.14343624 -0.15528642 -0.085321344 -0.11251333
produced	0.1313549 0.02910108 0.10588908 -0.054125287 -0.5381927 -0.5089533 0.093183376 0.27462807 -0.51310176 -0.044984467 -0.13636747 -0.2259985
research	-0.09654347 0.30546403 0.042505734 -0.514172 -0.31677416 -0.58040994 0.2649055 -0.025068106 -0.1791604 -0.07049724 0.25654432 -0.14241889
actor	0.11900961 -0.30907536 0.06362954 -0.28756568 -0.15750569 -0.59199375 0.27846065 -0.07450807 0.39534903 0.4211972 -0.0017112051 0.1072343
making	0.067360304 0.05121905 0.18981504 -0.35041395 -0.37913445 -0.17157179 0.37065494 0.1114331 -0.42657894 -0.5070328 0.17040354 -0.20723891
december	0.05118994 -0.41713247 0.027861767 -0.08973138 -0.28080904 -0.730996 0.14477094 -0.097438894 -0.15411963 0.1492238 -0.11393513 0.33449766
civil	-0.0032985893 0.14103496 -0.16771074 -0.48066494 0.03981809 -0.3532473 0.3237099 -0.2522599 0.35929543 0.25886136 0.4789889 0.024649188
women	0.005541655 0.46668115 0.27479434 -0.10215863 -0.21065994 -0.61088264 0.109865606 -0.08560375 -0.20808367 -0.19545364 0.22289172 0.35790282
special	-0.18308096 -0.100764014 0.22868778 -0.72708905 -0.15928231 -0.16517204 0.19310053 0.27826604 -0.13964722 0.021445377 -0.006100039 -0.43359044
style	-0.05693032 0.2889823 0.14835966 -0.45252606 -0.47296637 -0.301249 0.4097341 -0.21025297 -0.13472773 -0.16784993 0.3064047 0.1404001
design	0.11226548 0.3803488 0.16877832 -0.56728077 -0.44113505 -0.3721983 0.26326546 0.06587843 -0.093497604 -0.22038864 0.079721764 -0.1482855
william	-0.109166116 -0.15282999 -0.119909905 -0.30199772 0.035938624 -0.7635294 0.053471807 -0.0044174017 -0.09511176 0.3366957 0.3691195 -0.11548972
japanese	0.007234591 0.008939596 0.022398723 -0.68224597 0.06876115 -0.43679652 0.49324778 0.04063369 0.08452413 0.080490395 0.24986988 -0.1318509
available	0.09802188 0.20943938 0.05058667 -0.30941945 -0.3160081 -0.4206954 -0.17352198 0.10689255 -0.5852315 0.022735154 -0.3774347 -0.21065682
chinese	0.08703769 0.09382911 0.031504806 -0.66253567 0.05508516 -0.40213728 0.58530486 -0.07898507 0.0407054 -0.15895295 0.0112704 -0.05527608
forms	-0.2907158 0.1843484 0.46547544 -0.3517539 -0.20312487 -0.071401976 0.33106557 -0.097951405 -0.35251513 -0.46754062 -0.12652886 0.1291287
canada	0.22745721 -0.008655822 -0.19951837 -0.21259621 -0.15881956 -0.5795989 0.5917826 0.011071337 -0.33022636 0.054735977 -0.06510829 0.18817897
northern	0.24254754 0.058431547 -0.16184457 -0.50251 0.05736653 -0.27063078 0.75188005 -0.00043112485 -0.12285188 -0.0028066225 0.028484788 -0.035759207
died	0.05412942 -0.04200364 -0.37317246 -0.04537906 -0.18898208 -0.4243446 0.18814397 0.07243516 -0.64014333 -0.32599327 0.26046574 0.116891995
class	-0.12707928 -0.28095868 0.060481064 -0.67696905 -0.3940912 -0.3526073 0.32932383 0.065358065 -0.026767313 -0.16693857 0.14185902 0.04351391
living	-0.16062166 0.3572494 0.18622579 -0.3753322 0.20235313 -0.3619899 0.31534448 0.055010937 -0.5826472 -0.21882683 -0.05479392 0.07875411
next	0.63162726 0.04367181 0.16254084 -0.53877413 -0.07819697 -0.14087644 0.28086546 0.2161729 0.1181062 0.0072921077 0.12199316 0.319345
particular	0.25442505 -0.23515521 0.014797243 -0.46764246 -0.26317707 -0.13169977 0.4104849 0.26901487 -0.196775 -0.29481083 -0.39281312 -0.23162839
program	0.5089433 0.21406513 0.2469283 -0.4991855 -0.4222195 -0.28936267 0.20149817 0.13359188 0.0034722176 -0.15032911 -0.13739212 -0.15184563
